svm_type c_svc
kernel_type rbf
gamma 0.25
nr_class 3
total_sv 58
rho -0.06204132562451644 0.016006677811125185 0.10557229332536575
label 1 2 3
probA -3.444574744514079 -3.5074497512035756 -4.043646067521622
probB -0.05727215177848696 -0.012900673693926692 0.32112344138463783
nr_sv 7 28 23
SV
0.0 0.6558482158175761 1:-0.222222 2:1.0 3:-0.830508 4:-0.75 
1.0 0.7561731159868541 1:-0.555556 2:0.0833333 3:-0.762712 4:-0.666667 
1.0 0.0 1:-0.611111 2:-0.166667 3:-0.79661 4:-0.916667 
0.02705630804452891 0.0 1:-0.388889 2:0.166667 3:-0.830508 4:-0.75 
1.0 1.0 1:-0.888889 2:-0.75 3:-0.898305 4:-0.833333 
1.0 0.0 1:-0.611111 2:0.25 3:-0.79661 4:-0.583333 
0.6013914532393592 0.0 1:-0.722222 2:-0.166667 3:-0.864407 4:-0.833333 
-0.0 1.0 1:0.5 3:0.254237 4:0.0833333 
-0.0 1.0 1:0.166667 3:0.186441 4:0.166667 
-0.0 1.0 1:0.444444 2:-0.0833334 3:0.322034 4:0.166667 
-0.0 1.0 1:-0.333333 2:-0.75 3:0.0169491 4:-4.03573E-8 
-0.0 1.0 1:0.222222 2:-0.333333 3:0.220339 4:0.166667 
-0.0 0.7481858240405803 1:-0.222222 2:-0.333333 3:0.186441 4:-4.03573E-8 
-0.0 1.0 1:0.111111 2:0.0833333 3:0.254237 4:0.25 
-1.0 0.0 1:-0.666667 2:-0.666667 3:-0.220339 4:-0.25 
-0.0 1.0 1:-0.111111 2:-0.166667 3:0.0847457 4:0.166667 
-0.0 1.0 1:-1.32455E-7 2:-0.25 3:0.254237 4:0.0833333 
-0.628447761283888 0.0 1:-0.277778 2:-0.25 3:-0.118644 4:-4.03573E-8 
-0.0 1.0 1:-0.277778 2:-0.166667 3:0.186441 4:0.166667 
-0.0 1.0 1:0.0555554 2:-0.833333 3:0.186441 4:0.166667 
-0.0 1.0 1:-0.111111 3:0.288136 4:0.416667 
-0.0 1.0 1:0.111111 2:-0.583333 3:0.322034 4:0.166667 
-0.0 0.6242857061443716 1:0.277778 2:-0.166667 3:0.152542 4:0.0833333 
-0.0 1.0 1:0.388889 2:-0.333333 3:0.288136 4:0.0833333 
-0.0 1.0 1:0.333333 2:-0.166667 3:0.355932 4:0.333333 
-0.0 1.0 1:-0.0555556 2:-0.25 3:0.186441 4:0.166667 
-1.0 0.0 1:-0.222222 2:-0.5 3:-0.152542 4:-0.25 
-0.0 1.0 1:-0.0555556 2:-0.416667 3:0.38983 4:0.25 
-0.0 1.0 1:-0.388889 2:-0.166667 3:0.186441 4:0.166667 
-0.0 1.0 1:-0.0555556 2:0.166667 3:0.186441 4:0.25 
-0.0 1.0 1:0.333333 2:-0.0833334 3:0.254237 4:0.166667 
-0.0 1.0 1:0.111111 2:-0.75 3:0.152542 4:-4.03573E-8 
-0.0 1.0 1:-1.32455E-7 2:-0.166667 3:0.220339 4:0.0833333 
-1.0 0.0 1:-0.611111 2:-0.75 3:-0.220339 4:-0.25 
-1.0 0.0 1:-0.555556 2:-0.583333 3:-0.322034 4:-0.166667 
-0.0 -1.0 1:-0.166667 2:-0.416667 3:0.38983 4:0.5 
-0.0 -1.0 1:0.111111 2:-0.25 3:0.559322 4:0.416667 
-1.0 -1.0 1:-0.666667 2:-0.583333 3:0.186441 4:0.333333 
-0.0 -1.0 1:0.222222 3:0.38983 4:0.583333 
-0.0 -1.0 1:0.166667 2:-0.416667 3:0.457627 4:0.5 
-0.0 -0.9285834693444339 1:-0.222222 2:-0.583333 3:0.355932 4:0.583333 
-0.0 -1.0 1:0.222222 2:-0.166667 3:0.525424 4:0.416667 
-0.513609902052525 -1.0 1:-0.0555556 2:-0.833333 3:0.355932 4:0.166667 
-0.0 -1.0 1:-0.277778 2:-0.333333 3:0.322034 4:0.583333 
-0.0 -1.0 1:0.111111 2:-0.416667 3:0.322034 4:0.416667 
-0.0 -1.0 1:0.611111 3:0.694915 4:0.416667 
-0.0 -1.0 1:0.0555554 2:-0.333333 3:0.288136 4:0.416667 
-0.0 -1.0 1:-1.32455E-7 2:-0.166667 3:0.322034 4:0.416667 
-0.0 -1.0 1:0.611111 2:-0.166667 3:0.627119 4:0.25 
-0.5941888562343858 -0.44388806084051813 1:1.0 2:0.5 3:0.830508 4:0.583333 
-0.24139596683489106 -1.0 1:0.111111 2:-0.333333 3:0.38983 4:0.166667 
-0.0 -1.0 1:-1.32455E-7 2:-0.5 3:0.559322 4:0.0833333 
-0.0 -1.0 1:0.166667 2:-0.0833334 3:0.525424 4:0.416667 
-0.06282660668262839 -1.0 1:-0.0555556 2:-0.166667 3:0.288136 4:0.416667 
-0.0 -1.0 1:-0.166667 2:-0.416667 3:0.38983 4:0.5 
-0.0 -1.0 1:0.111111 2:-0.583333 3:0.355932 4:0.5 
-0.0 -1.0 1:0.222222 2:-0.166667 3:0.423729 4:0.583333 
-0.0 -1.0 1:-0.111111 2:-0.166667 3:0.38983 4:0.416667 
